svm_type c_svc
kernel_type rbf
gamma 0.1
nr_class 2
total_sv 52
rho 0.193891
label 2 4
nr_sv 24 28
SV
1 1:-0.859671 2:-0.111111 3:-0.333333 4:-0.333333 5:-0.111111 6:0.333333 7:1 8:-0.555556 9:-0.777778 10:-1 
1 1:-0.85768 2:0.111111 3:0.555556 4:0.555556 5:-1 6:-0.555556 7:-0.333333 8:-0.555556 9:0.333333 10:-1 
1 1:-0.857408 2:-1 3:-1 4:-1 5:-1 6:-0.777778 7:1 8:-0.555556 9:-1 10:-1 
1 1:-0.847895 2:0.111111 3:-0.777778 4:-1 5:-1 6:-1 7:-1 8:0.333333 9:-1 10:-1 
1 1:-0.841494 2:-1 3:-0.555556 4:-0.555556 5:-0.777778 6:-0.777778 7:-1 8:0.333333 9:-0.777778 10:-1 
0.7527929157207479 1:-0.834238 2:-0.555556 3:-0.555556 4:-0.777778 5:-1 6:-0.777778 7:-0.555556 8:-0.555556 9:-1 10:-1 
1 1:-0.834221 2:0.555556 3:-0.555556 4:-0.555556 5:-1 6:-0.777778 7:-0.777778 8:-0.555556 9:-0.777778 10:-1 
0.8058716705276157 1:-0.833599 2:-1 3:-1 4:-1 5:-1 6:1 7:-1 8:-1 9:-1 10:-1 
1 1:-0.832114 2:-0.555556 3:-1 4:-1 5:-0.555556 6:0.555556 7:-1 8:-0.111111 9:0.555556 10:-1 
0.4008869022617209 1:-0.830623 2:-1 3:-1 4:-1 5:-0.777778 6:-1 7:-0.555556 8:-1 9:-1 10:0.333333 
1 1:-0.828243 2:0.555556 3:-0.333333 4:-0.333333 5:-0.111111 6:-0.333333 7:0.333333 8:0.333333 9:0.555556 10:-0.777778 
0.413962265923613 1:-0.828241 2:-0.111111 3:-1 4:-1 5:-0.333333 6:-0.777778 7:-1 8:-0.555556 9:-1 10:-1 
1 1:-0.826661 2:0.111111 3:-1 4:-0.555556 5:-1 6:-0.777778 7:-1 8:-0.555556 9:-1 10:-1 
1 1:-0.825505 2:0.555556 3:-0.333333 4:0.111111 5:-0.555556 6:-0.555556 7:-1 8:-0.333333 9:-0.555556 10:-1 
1 1:-0.824857 2:-0.555556 3:-0.555556 4:-0.777778 5:-1 6:-0.555556 7:-1 8:-0.555556 9:0.111111 10:-1 
1 1:-0.819714 2:-0.111111 3:-1 4:-0.555556 5:-0.555556 6:-0.777778 7:-0.777778 8:-0.777778 9:-0.555556 10:-1 
0.3043054943846206 1:-0.990339 2:-1 3:-1 4:-1 5:-1 6:-0.777778 7:-0.111111 8:-0.111111 9:-1 10:-1 
0.8807281447136129 1:-0.984444 2:-0.333333 3:-1 4:-1 5:-1 6:-0.777778 7:-1 8:-0.555556 9:0.111111 10:-1 
1 1:-0.857569 2:0.111111 3:-0.555556 4:-0.555556 5:-0.111111 6:-0.555556 7:1 8:-0.555556 9:-0.111111 10:-0.555556 
1 1:-0.973177 2:-0.111111 3:0.333333 4:0.333333 5:-1 6:-0.111111 7:0.555556 8:-0.555556 9:-0.333333 10:-1 
1 1:-0.832868 2:-0.111111 3:-1 4:-0.333333 5:-1 6:-0.777778 7:-1 8:-0.555556 9:-0.777778 10:-1 
1 1:-0.917427 2:-0.111111 3:-0.555556 4:-0.333333 5:-0.555556 6:-0.333333 7:-0.111111 8:-0.333333 9:0.333333 10:-1 
1 1:-0.916089 2:0.555556 3:-0.777778 4:-1 5:-1 6:-0.111111 7:-1 8:-1 9:-1 10:-1 
1 1:-0.908855 2:-0.555556 3:-1 4:-1 5:-1 6:-0.777778 7:-0.111111 8:-0.111111 9:-1 10:-1 
-1 1:-0.853868 2:-0.111111 3:-0.555556 4:-0.555556 5:-0.555556 6:-0.777778 7:-0.555556 8:-0.333333 9:-0.333333 10:-1 
-1 1:-0.852997 2:0.333333 3:-0.333333 4:0.111111 5:-0.333333 6:0.111111 7:-1 8:-0.333333 9:-0.555556 10:-1 
-1 1:-0.850295 2:-0.111111 3:-0.777778 4:-0.555556 5:-0.333333 6:-0.777778 7:0.333333 8:-0.555556 9:0.111111 10:-1 
-1 1:-0.846481 2:-0.777778 3:-0.111111 4:-0.555556 5:-0.555556 6:0.111111 7:0.333333 8:0.333333 9:-0.111111 10:-1 
-0.9006735833768057 1:-0.845249 2:1 3:-0.333333 4:-0.555556 5:-1 6:-0.555556 7:-0.555556 8:0.111111 9:-0.111111 10:-0.777778 
-1 1:-0.844791 2:-0.111111 3:0.111111 4:-0.111111 5:0.111111 6:1 7:-1 8:-0.555556 9:-1 10:-1 
-0.4052970545638657 1:-0.843926 2:0.777778 3:-0.111111 4:0.555556 5:-1 6:-0.777778 7:-0.555556 8:-0.777778 9:-1 10:-0.111111 
-1 1:-0.843914 2:-0.111111 3:-0.555556 4:-0.555556 5:-0.333333 6:-0.777778 7:-0.333333 8:-0.555556 9:-0.333333 10:-1 
-1 1:-0.843228 2:0.555556 3:-0.777778 4:-0.333333 5:-1 6:-0.111111 7:-1 8:-0.111111 9:-0.333333 10:-0.333333 
-1 1:-0.843162 2:-0.111111 3:-0.777778 4:-0.555556 5:-1 6:0.111111 7:1 8:-0.111111 9:-1 10:-1 
-1 1:-0.843099 2:0.777778 3:-0.111111 4:-0.111111 5:-0.777778 6:-0.777778 7:-0.777778 8:-0.111111 9:-1 10:-1 
-1 1:-0.842893 2:-0.111111 3:-0.555556 4:-0.111111 5:-0.111111 6:-0.555556 7:-0.555556 8:-0.333333 9:1 10:-1 
-1 1:-0.842766 2:0.111111 3:-0.555556 4:-0.333333 5:-1 6:-0.111111 7:-0.777778 8:-0.555556 9:0.777778 10:-1 
-0.3703312833398016 1:-0.842637 2:1 3:-0.333333 4:-0.777778 5:-1 6:-0.555556 7:-0.777778 8:-0.333333 9:-0.555556 10:1 
-0.01227213004880657 1:-0.84123 2:1 3:0.111111 4:-0.333333 5:-1 6:-0.555556 7:-0.333333 8:-0.555556 9:-0.777778 10:-0.555556 
-1 1:-0.835103 2:-0.777778 3:-0.555556 4:-0.333333 5:-0.333333 6:-0.777778 7:-0.111111 8:-0.777778 9:-0.111111 10:-1 
-1 1:-0.834966 2:0.555556 3:-0.777778 4:-0.555556 5:-1 6:0.111111 7:-0.555556 8:0.333333 9:-1 10:-1 
-1 1:-0.834863 2:0.333333 3:-0.555556 4:-0.333333 5:-0.333333 6:-0.555556 7:-0.555556 8:-0.555556 9:-0.777778 10:0.333333 
-1 1:-0.83239 2:-0.555556 3:-0.333333 4:-0.111111 5:-0.777778 6:0.111111 7:0.555556 8:-0.333333 9:-1 10:-1 
-0.4357707454088197 1:-0.82982 2:-0.111111 3:-0.555556 4:-0.555556 5:-0.555556 6:0.111111 7:1 8:-0.555556 9:-1 10:-1 
-1 1:-0.826355 2:-0.333333 3:-1 4:-1 5:-0.555556 6:-1 7:-0.111111 8:-0.777778 9:-1 10:-1 
-0.05945816745935204 1:-0.987742 2:0.555556 3:-0.333333 4:-0.333333 5:-1 6:-0.777778 7:0.777778 8:-0.555556 9:-0.555556 10:-1 
-0.1601570455666818 1:-0.961571 2:-0.555556 3:-0.555556 4:-0.111111 5:-0.777778 6:-0.555556 7:1 8:0.333333 9:-1 10:-1 
-0.9206909392344502 1:-0.961571 2:-0.555556 3:-0.555556 4:-0.111111 5:-0.777778 6:-0.555556 7:1 8:0.333333 9:-1 10:-1 
-1 1:-0.945407 2:0.333333 3:-0.777778 4:-0.333333 5:-1 6:-0.555556 7:-0.333333 8:-0.555556 9:-0.555556 10:-1 
-0.07436544412285631 1:-0.936555 2:-1 3:-0.333333 4:-0.555556 5:1 6:-0.333333 7:1 8:-0.111111 9:0.111111 10:-1 
-0.2195310004104913 1:-0.930408 2:1 3:1 4:1 5:1 6:1 7:1 8:-0.333333 9:1 10:1 
-1 1:-0.928283 2:0.111111 3:-1 4:-0.555556 5:-1 6:-0.333333 7:-0.111111 8:-0.111111 9:1 10:-1 
